digraph Tree {
node [shape=box, style="filled, rounded", color="black", fontname=helvetica] ;
edge [fontname=helvetica] ;
0 [label="bedrooms_discretized <= 1.5\ngini = 0.46\nsamples = 401\nvalue = [281, 65, 55]\nclass = MEDIA", fillcolor="#eeae80"] ;
1 [label="sqft_living_discretized <= 1.5\ngini = 0.43\nsamples = 350\nvalue = [256, 43, 51]\nclass = MEDIA", fillcolor="#eda977"] ;
0 -> 1 [labeldistance=2.5, labelangle=45, headlabel="True"] ;
2 [label="locations_discretized <= 0.5\ngini = 0.42\nsamples = 185\nvalue = [136, 36, 13]\nclass = MEDIA", fillcolor="#eeaa7a"] ;
1 -> 2 ;
3 [label="waterfront_discretized <= 0.5\ngini = 0.26\nsamples = 74\nvalue = [63, 3, 8]\nclass = MEDIA", fillcolor="#e9965a"] ;
2 -> 3 ;
4 [label="bathrooms_discretized <= 0.5\ngini = 0.24\nsamples = 73\nvalue = [63, 3, 7]\nclass = MEDIA", fillcolor="#e99457"] ;
3 -> 4 ;
5 [label="bedrooms_discretized <= 0.5\ngini = 0.56\nsamples = 5\nvalue = [3, 1, 1]\nclass = MEDIA", fillcolor="#f2c09c"] ;
4 -> 5 ;
6 [label="gini = 0.5\nsamples = 2\nvalue = [1, 0, 1]\nclass = MEDIA", fillcolor="#ffffff"] ;
5 -> 6 ;
7 [label="gini = 0.44\nsamples = 3\nvalue = [2, 1, 0]\nclass = MEDIA", fillcolor="#f2c09c"] ;
5 -> 7 ;
8 [label="grade_discretized <= 0.5\ngini = 0.21\nsamples = 68\nvalue = [60, 2, 6]\nclass = MEDIA", fillcolor="#e89153"] ;
4 -> 8 ;
9 [label="gini = 0.16\nsamples = 35\nvalue = [32, 2, 1]\nclass = MEDIA", fillcolor="#e78c4b"] ;
8 -> 9 ;
10 [label="gini = 0.26\nsamples = 33\nvalue = [28, 0, 5]\nclass = MEDIA", fillcolor="#ea985c"] ;
8 -> 10 ;
11 [label="gini = 0.0\nsamples = 1\nvalue = [0, 0, 1]\nclass = CARA", fillcolor="#8139e5"] ;
3 -> 11 ;
12 [label="locations_discretized <= 1.5\ngini = 0.48\nsamples = 111\nvalue = [73, 33, 5]\nclass = MEDIA", fillcolor="#f2be99"] ;
2 -> 12 ;
13 [label="sqft_above_discretized <= 0.5\ngini = 0.53\nsamples = 54\nvalue = [24, 28, 2]\nclass = BARATA", fillcolor="#e5fcee"] ;
12 -> 13 ;
14 [label="view_discretized <= 0.5\ngini = 0.4\nsamples = 25\nvalue = [7, 18, 0]\nclass = BARATA", fillcolor="#86efb2"] ;
13 -> 14 ;
15 [label="gini = 0.34\nsamples = 23\nvalue = [5, 18, 0]\nclass = BARATA", fillcolor="#70eca4"] ;
14 -> 15 ;
16 [label="gini = 0.0\nsamples = 2\nvalue = [2, 0, 0]\nclass = MEDIA", fillcolor="#e58139"] ;
14 -> 16 ;
17 [label="sqft_living15_discretized <= 1.5\ngini = 0.53\nsamples = 29\nvalue = [17, 10, 2]\nclass = MEDIA", fillcolor="#f5d1b6"] ;
13 -> 17 ;
18 [label="gini = 0.56\nsamples = 14\nvalue = [6, 7, 1]\nclass = BARATA", fillcolor="#e6fcef"] ;
17 -> 18 ;
19 [label="gini = 0.42\nsamples = 15\nvalue = [11, 3, 1]\nclass = MEDIA", fillcolor="#eeab7b"] ;
17 -> 19 ;
20 [label="grade_discretized <= 1.5\ngini = 0.25\nsamples = 57\nvalue = [49, 5, 3]\nclass = MEDIA", fillcolor="#e99457"] ;
12 -> 20 ;
21 [label="sqft_living_discretized <= 0.5\ngini = 0.21\nsamples = 53\nvalue = [47, 3, 3]\nclass = MEDIA", fillcolor="#e89051"] ;
20 -> 21 ;
22 [label="gini = 0.16\nsamples = 47\nvalue = [43, 2, 2]\nclass = MEDIA", fillcolor="#e78c4b"] ;
21 -> 22 ;
23 [label="gini = 0.5\nsamples = 6\nvalue = [4, 1, 1]\nclass = MEDIA", fillcolor="#efb388"] ;
21 -> 23 ;
24 [label="sqft_living15_discretized <= 1.0\ngini = 0.5\nsamples = 4\nvalue = [2, 2, 0]\nclass = MEDIA", fillcolor="#ffffff"] ;
20 -> 24 ;
25 [label="gini = 0.5\nsamples = 2\nvalue = [1, 1, 0]\nclass = MEDIA", fillcolor="#ffffff"] ;
24 -> 25 ;
26 [label="gini = 0.5\nsamples = 2\nvalue = [1, 1, 0]\nclass = MEDIA", fillcolor="#ffffff"] ;
24 -> 26 ;
27 [label="bathrooms_discretized <= 1.5\ngini = 0.42\nsamples = 165\nvalue = [120, 7, 38]\nclass = MEDIA", fillcolor="#eeae7f"] ;
1 -> 27 ;
28 [label="sqft_living15_discretized <= 1.0\ngini = 0.52\nsamples = 64\nvalue = [39, 5, 20]\nclass = MEDIA", fillcolor="#f4c9aa"] ;
27 -> 28 ;
29 [label="locations_discretized <= 1.5\ngini = 0.56\nsamples = 46\nvalue = [25, 4, 17]\nclass = MEDIA", fillcolor="#f8dcc8"] ;
28 -> 29 ;
30 [label="bedrooms_discretized <= 0.5\ngini = 0.62\nsamples = 10\nvalue = [5, 3, 2]\nclass = MEDIA", fillcolor="#f8dbc6"] ;
29 -> 30 ;
31 [label="gini = 0.0\nsamples = 1\nvalue = [0, 0, 1]\nclass = CARA", fillcolor="#8139e5"] ;
30 -> 31 ;
32 [label="gini = 0.57\nsamples = 9\nvalue = [5, 3, 1]\nclass = MEDIA", fillcolor="#f6d5bd"] ;
30 -> 32 ;
33 [label="bedrooms_discretized <= 0.5\ngini = 0.52\nsamples = 36\nvalue = [20, 1, 15]\nclass = MEDIA", fillcolor="#f9e1d0"] ;
29 -> 33 ;
34 [label="gini = 0.38\nsamples = 8\nvalue = [6, 0, 2]\nclass = MEDIA", fillcolor="#eeab7b"] ;
33 -> 34 ;
35 [label="gini = 0.53\nsamples = 28\nvalue = [14, 1, 13]\nclass = MEDIA", fillcolor="#fdf7f2"] ;
33 -> 35 ;
36 [label="locations_discretized <= 0.5\ngini = 0.36\nsamples = 18\nvalue = [14, 1, 3]\nclass = MEDIA", fillcolor="#eca36e"] ;
28 -> 36 ;
37 [label="gini = 0.44\nsamples = 3\nvalue = [1, 0, 2]\nclass = CARA", fillcolor="#c09cf2"] ;
36 -> 37 ;
38 [label="sqft_above_discretized <= 0.5\ngini = 0.24\nsamples = 15\nvalue = [13, 1, 1]\nclass = MEDIA", fillcolor="#e99355"] ;
36 -> 38 ;
39 [label="gini = 0.13\nsamples = 14\nvalue = [13, 0, 1]\nclass = MEDIA", fillcolor="#e78b48"] ;
38 -> 39 ;
40 [label="gini = 0.0\nsamples = 1\nvalue = [0, 1, 0]\nclass = BARATA", fillcolor="#39e581"] ;
38 -> 40 ;
41 [label="bedrooms_discretized <= 0.5\ngini = 0.32\nsamples = 101\nvalue = [81, 2, 18]\nclass = MEDIA", fillcolor="#eb9f69"] ;
27 -> 41 ;
42 [label="locations_discretized <= 0.5\ngini = 0.53\nsamples = 23\nvalue = [13, 1, 9]\nclass = MEDIA", fillcolor="#f8dbc6"] ;
41 -> 42 ;
43 [label="sqft_living15_discretized <= 1.0\ngini = 0.48\nsamples = 10\nvalue = [4, 0, 6]\nclass = CARA", fillcolor="#d5bdf6"] ;
42 -> 43 ;
44 [label="gini = 0.32\nsamples = 5\nvalue = [1, 0, 4]\nclass = CARA", fillcolor="#a06aec"] ;
43 -> 44 ;
45 [label="gini = 0.48\nsamples = 5\nvalue = [3, 0, 2]\nclass = MEDIA", fillcolor="#f6d5bd"] ;
43 -> 45 ;
46 [label="sqft_above_discretized <= 0.5\ngini = 0.46\nsamples = 13\nvalue = [9, 1, 3]\nclass = MEDIA", fillcolor="#efb388"] ;
42 -> 46 ;
47 [label="gini = 0.57\nsamples = 9\nvalue = [5, 1, 3]\nclass = MEDIA", fillcolor="#f6d5bd"] ;
46 -> 47 ;
48 [label="gini = 0.0\nsamples = 4\nvalue = [4, 0, 0]\nclass = MEDIA", fillcolor="#e58139"] ;
46 -> 48 ;
49 [label="sqft_living15_discretized <= 1.0\ngini = 0.23\nsamples = 78\nvalue = [68, 1, 9]\nclass = MEDIA", fillcolor="#e99356"] ;
41 -> 49 ;
50 [label="sqft_above_discretized <= 0.5\ngini = 0.15\nsamples = 49\nvalue = [45, 1, 3]\nclass = MEDIA", fillcolor="#e78c4a"] ;
49 -> 50 ;
51 [label="gini = 0.13\nsamples = 44\nvalue = [41, 1, 2]\nclass = MEDIA", fillcolor="#e78a47"] ;
50 -> 51 ;
52 [label="gini = 0.32\nsamples = 5\nvalue = [4, 0, 1]\nclass = MEDIA", fillcolor="#eca06a"] ;
50 -> 52 ;
53 [label="grade_discretized <= 0.5\ngini = 0.33\nsamples = 29\nvalue = [23, 0, 6]\nclass = MEDIA", fillcolor="#eca26d"] ;
49 -> 53 ;
54 [label="gini = 0.22\nsamples = 24\nvalue = [21, 0, 3]\nclass = MEDIA", fillcolor="#e99355"] ;
53 -> 54 ;
55 [label="gini = 0.48\nsamples = 5\nvalue = [2, 0, 3]\nclass = CARA", fillcolor="#d5bdf6"] ;
53 -> 55 ;
56 [label="sqft_living15_discretized <= 1.5\ngini = 0.57\nsamples = 51\nvalue = [25, 22, 4]\nclass = MEDIA", fillcolor="#fcf2eb"] ;
0 -> 56 [labeldistance=2.5, labelangle=-45, headlabel="False"] ;
57 [label="waterfront_discretized <= 0.5\ngini = 0.56\nsamples = 27\nvalue = [16, 7, 4]\nclass = MEDIA", fillcolor="#f3c6a6"] ;
56 -> 57 ;
58 [label="sqft_living_discretized <= 1.5\ngini = 0.54\nsamples = 26\nvalue = [16, 7, 3]\nclass = MEDIA", fillcolor="#f3c3a1"] ;
57 -> 58 ;
59 [label="sqft_living15_discretized <= 0.5\ngini = 0.57\nsamples = 23\nvalue = [13, 7, 3]\nclass = MEDIA", fillcolor="#f5d0b5"] ;
58 -> 59 ;
60 [label="bathrooms_discretized <= 1.5\ngini = 0.44\nsamples = 3\nvalue = [0, 1, 2]\nclass = CARA", fillcolor="#c09cf2"] ;
59 -> 60 ;
61 [label="gini = 0.0\nsamples = 2\nvalue = [0, 0, 2]\nclass = CARA", fillcolor="#8139e5"] ;
60 -> 61 ;
62 [label="gini = 0.0\nsamples = 1\nvalue = [0, 1, 0]\nclass = BARATA", fillcolor="#39e581"] ;
60 -> 62 ;
63 [label="sqft_above_discretized <= 1.5\ngini = 0.48\nsamples = 20\nvalue = [13, 6, 1]\nclass = MEDIA", fillcolor="#f2c09c"] ;
59 -> 63 ;
64 [label="gini = 0.5\nsamples = 11\nvalue = [6, 5, 0]\nclass = MEDIA", fillcolor="#fbeade"] ;
63 -> 64 ;
65 [label="gini = 0.37\nsamples = 9\nvalue = [7, 1, 1]\nclass = MEDIA", fillcolor="#eca06a"] ;
63 -> 65 ;
66 [label="gini = 0.0\nsamples = 3\nvalue = [3, 0, 0]\nclass = MEDIA", fillcolor="#e58139"] ;
58 -> 66 ;
67 [label="gini = 0.0\nsamples = 1\nvalue = [0, 0, 1]\nclass = CARA", fillcolor="#8139e5"] ;
57 -> 67 ;
68 [label="sqft_living_discretized <= 0.5\ngini = 0.47\nsamples = 24\nvalue = [9, 15, 0]\nclass = BARATA", fillcolor="#b0f5cd"] ;
56 -> 68 ;
69 [label="grade_discretized <= 0.5\ngini = 0.5\nsamples = 16\nvalue = [8, 8, 0]\nclass = MEDIA", fillcolor="#ffffff"] ;
68 -> 69 ;
70 [label="bathrooms_discretized <= 1.5\ngini = 0.49\nsamples = 12\nvalue = [5, 7, 0]\nclass = BARATA", fillcolor="#c6f8db"] ;
69 -> 70 ;
71 [label="locations_discretized <= 1.5\ngini = 0.32\nsamples = 5\nvalue = [1, 4, 0]\nclass = BARATA", fillcolor="#6aeca0"] ;
70 -> 71 ;
72 [label="gini = 0.0\nsamples = 2\nvalue = [0, 2, 0]\nclass = BARATA", fillcolor="#39e581"] ;
71 -> 72 ;
73 [label="gini = 0.44\nsamples = 3\nvalue = [1, 2, 0]\nclass = BARATA", fillcolor="#9cf2c0"] ;
71 -> 73 ;
74 [label="sqft_above_discretized <= 1.5\ngini = 0.49\nsamples = 7\nvalue = [4, 3, 0]\nclass = MEDIA", fillcolor="#f8e0ce"] ;
70 -> 74 ;
75 [label="gini = 0.38\nsamples = 4\nvalue = [3, 1, 0]\nclass = MEDIA", fillcolor="#eeab7b"] ;
74 -> 75 ;
76 [label="gini = 0.44\nsamples = 3\nvalue = [1, 2, 0]\nclass = BARATA", fillcolor="#9cf2c0"] ;
74 -> 76 ;
77 [label="locations_discretized <= 0.5\ngini = 0.38\nsamples = 4\nvalue = [3, 1, 0]\nclass = MEDIA", fillcolor="#eeab7b"] ;
69 -> 77 ;
78 [label="bathrooms_discretized <= 1.0\ngini = 0.5\nsamples = 2\nvalue = [1, 1, 0]\nclass = MEDIA", fillcolor="#ffffff"] ;
77 -> 78 ;
79 [label="gini = 0.0\nsamples = 1\nvalue = [1, 0, 0]\nclass = MEDIA", fillcolor="#e58139"] ;
78 -> 79 ;
80 [label="gini = 0.0\nsamples = 1\nvalue = [0, 1, 0]\nclass = BARATA", fillcolor="#39e581"] ;
78 -> 80 ;
81 [label="gini = 0.0\nsamples = 2\nvalue = [2, 0, 0]\nclass = MEDIA", fillcolor="#e58139"] ;
77 -> 81 ;
82 [label="bathrooms_discretized <= 0.5\ngini = 0.22\nsamples = 8\nvalue = [1, 7, 0]\nclass = BARATA", fillcolor="#55e993"] ;
68 -> 82 ;
83 [label="gini = 0.0\nsamples = 1\nvalue = [1, 0, 0]\nclass = MEDIA", fillcolor="#e58139"] ;
82 -> 83 ;
84 [label="gini = 0.0\nsamples = 7\nvalue = [0, 7, 0]\nclass = BARATA", fillcolor="#39e581"] ;
82 -> 84 ;
}